\data\
ngram 1=6
ngram 2=4

\1-grams:
-0.60206 this    -2.255273
-0.60206 is  -2.255273
-0.90309    a   -2.255273
-0.90309    test   -2.255273
-0.90309    And   -2.255273
-0.90309    so   -2.255273

\2-grams:
-0.77815    this is
-0.77815    is a
-0.77815    And so
-0.77815    is this

\end\